//Numpy array shape [10, 32]
//Min -1.743828415871
//Max 1.145897507668
//Number of zeros 0

#ifndef W2_H_
#define W2_H_

#ifdef __INTELFPGA_COMPILER__
hls_init_on_powerup
#endif
static const model_default_t w2[320] = {0.2346764952, 0.4893535972, -1.3245741129, -0.9667666554, 0.0495874770, 0.0242329184, -0.0427662395, 0.5630365014, 1.0040279627, -0.4207450449, -0.1878527254, 0.9289007783, -0.7228398323, -0.7297983170, 0.3149843216, -0.3451887965, 0.6095837355, 0.3113452196, 0.3474760354, -0.5184151530, 0.0330689289, -0.0751939118, -1.1271293163, 0.0737641156, -0.2189620584, -0.4143310189, -0.3436504304, 0.7263799906, 0.1576769650, -0.0360635296, -0.0486539230, 0.1067814603, 0.1969761699, -0.1277060956, 0.6766157150, 0.6453146935, -0.1625341773, -0.1951961517, 0.1923111528, 0.7509331107, -0.3748887777, 0.1748381406, -0.4156194925, -0.1716414839, 0.2274640203, -0.6359023452, 0.3083442450, 0.2216145694, -0.0708002821, 0.3006201982, 0.6465791464, 0.0451118052, 0.7640060186, 0.7355674505, -0.3672981262, 0.0057123201, -0.0354988240, -0.4372571111, -0.1206145957, 0.2400482893, 0.0500211827, -0.0120117357, -0.3277105689, 0.4790989757, 0.1730853468, -0.1370362490, 0.4913376272, -0.2442040443, 0.5942851901, -0.4600403607, 0.3129993081, 0.2674849033, -0.3518670201, -0.1024793983, 0.3444245756, -0.1830666661, 0.2228067070, -0.2504565120, 0.5488715768, -0.9584831595, 0.3386590779, 0.2174133509, 0.0251601860, 0.1627294272, 0.6688257456, 0.1340181231, 0.2538323104, -0.2134833634, -0.0222647823, 0.6926907897, -0.1196010634, -0.0538023636, -1.4018690586, -0.2555294335, -0.3726633489, 0.1448879093, 0.4037554264, 0.1177628413, 0.3937866092, -0.6110535264, -0.1046346053, 0.5213367343, -0.4076593816, 0.0221358258, -0.0116128400, 0.1331924945, 0.6048332453, 0.5477102995, 0.5297864079, -0.4495990574, -0.0042394269, 0.7417041063, -0.7793736458, -0.5247967243, -0.2923913598, 0.2980638146, 0.5881505609, 0.1811531186, -1.2857906818, -1.0703033209, 0.0656228364, 0.2047601044, -0.1853603870, -0.7679001093, 0.3678314984, -0.0334850550, 0.2295880169, -0.0538180694, 1.1458975077, -0.1312337518, 0.1959378868, 0.1898669749, -0.3527950943, -0.1408834606, 0.2879769504, -0.1822886765, -0.0810548142, 0.0897989422, -1.7438284159, 0.1904609352, 0.0269700121, 0.6948964000, -0.3979552984, 0.3759781122, 0.1358326823, -0.3067491055, 0.2840424776, -0.0020034695, -0.7068915963, -0.3225902021, 0.2592513561, -0.0470846817, 0.2999364436, 0.4855906963, -0.3559365571, -0.2848869860, -0.4066265225, 0.1779814363, -0.1844742298, -0.3531875312, -0.0390835516, -0.0612417944, 0.5935525894, 0.4580204785, -0.2535609901, 0.5600543618, -0.6068167090, -0.3097831905, -0.0448239595, 0.5210098028, -0.1087445319, -0.3448851407, 0.2206748426, -0.6022764444, 0.2338035405, 0.5154475570, -0.7056919336, 0.0102154659, 0.6715030074, 0.5363414288, -0.3107576966, -0.2392650098, -0.9043315649, -0.5164083242, -0.7245843410, -0.2986815274, 0.5825011730, 0.1213038936, 0.0698773339, -0.0996155366, 0.1341874003, 0.1991588473, 0.4034096897, -0.3064643145, 0.1866968870, 0.5670999885, 0.6188737750, 0.6101871133, -0.2695388198, -0.3828409910, 0.3146971166, -0.1594274044, 0.6524917483, 0.2985532880, 0.2102194875, 0.1253315508, -0.3953785002, -0.4110549390, 0.2705892920, 0.4574795067, 0.0613566600, 0.2431683242, 0.3039351404, -0.5666301847, 0.1804744154, 0.0933140367, 0.1583977044, 0.4323526621, 0.8655217290, 0.8454850316, -0.6091051698, 0.5603347421, -0.2310071290, 0.1407823712, -0.3369458020, 0.3435182273, -0.0168974586, 0.1804030389, 0.2423712015, 0.3476656079, 0.2132808417, -0.0566804893, 0.6796526909, -0.2669793963, -0.1863170713, 0.4201133847, 0.1619457453, -0.3822054267, -0.1242720485, 0.8893686533, 0.0307441074, -0.3011171818, -0.6869981289, -0.3120206892, 0.1123693511, -0.2289690226, 0.2452972531, 0.2926762700, 0.3170433939, -0.4744716287, 0.1117249057, 0.1403854042, 0.5372985005, 0.3596314490, -0.3804949224, 0.3653911650, 0.6233949661, -0.3887022436, -0.4626591206, 0.8104608655, 0.3377006650, 0.9633099437, 0.4464800656, -0.0275571942, -0.2330792248, -0.1321642399, -0.1773262918, 0.1662864238, -0.6056538224, 0.0487439334, -0.5056749582, -0.0040761968, 0.4046073258, 0.6800791621, -0.0821424350, -0.2182026654, 0.0102009866, -0.4671430886, -0.5719037056, 0.0909895673, 0.4607557654, 0.0176830441, -0.1535884589, -0.0462087505, -0.4879590869, -0.2687770128, 0.7587280869, 0.6235936880, 0.3362462521, -0.0257794913, 0.1449298114, -0.5940147042, -0.0578991994, -0.5714892745, 0.3527306914, -0.3221421242, -0.4703046381, -0.2767112255, 0.9327785373, 0.2119247913, 0.5903918147, -0.4246656001, -0.1545833051, -0.1548897028, 0.4990904927, -0.4960806370, -0.1679162234, -0.2904220819, 0.4607555568, -0.1613112539, -0.1395021081, 0.2016931325, -0.0051961117, 0.2986629009, -0.2032956183, 0.1446070671, -0.9995139241, -0.4853411019, -1.1252822876, 0.0411906801};

#endif
