#ifndef WEIGHTH
#define WEIGHTH

const lstm_config::weight_t weight_i::kernel [lstm_config::n_in] hls_register = {0.46298456, 1.2211044, 0.44707328, 1.9829566, -0.28933993, -3.0162446, 0.22858682, 1.7823571, 0.59790653, 0.8659021};
const lstm_config::weight_t weight_f::kernel [lstm_config::n_in] hls_register = {-0.16847311, 1.601285, -1.6325116, 0.12747103, -1.2217214, 0.5873598, -0.25963876, 1.7333379, 1.5747571, 0.9929919};
const lstm_config::weight_t weight_c::kernel [lstm_config::n_in] hls_register = {-2.3988776, 2.476828, 0.47769028, 0.7457318, 2.8448894, -5.4782367, 0.26475, -1.3404416, 1.3607004, -0.41122425};
const lstm_config::weight_t weight_o::kernel [lstm_config::n_in] hls_register = {0.89732033, 2.465984, -0.9450634, -0.4912449, -0.9415947, -5.220098, -1.5924025, 1.670218, 1.3820578, 1.4412203};

const lstm_config::weight_t weight_i::bias [lstm_config::n_in] hls_register = {1.7223712, 1.5245777, 0.04531007, 1.2972091, 0.5869241, 0.5558127, 0.079415105, -0.29587263, 0.24998651, 0.33750916};
const lstm_config::weight_t weight_f::bias [lstm_config::n_in] hls_register = {-0.40950358, -0.22411989, -0.16917689, 0.3198206, 0.8575033, -0.45896176, 0.70067686, -0.34523973, 0.38596392, -0.086020075};
const lstm_config::weight_t weight_c::bias [lstm_config::n_in] hls_register = {-0.061581325, 0.14810802, 0.023997916, 0.017701147, -0.09765869, -0.06768553, 0.12776834, -0.019142048, -0.027983889, -0.17708626};
const lstm_config::weight_t weight_o::bias [lstm_config::n_in] hls_register = {1.271308, 1.3893366, -0.07965317, 1.4016174, 0.34569103, -0.21485983, -0.15339148, -0.20624563, 0.18898773, -0.0065465667};


const lstm_config::weight_t weight_i::recurrent_kernel [lstm_config::n_in][lstm_config::n_in] hls_register = {
    {-0.6399201, 1.9635061, -1.550877, -3.1856122, 0.5434201, -5.5551825, -1.595727, -1.3063656, 0.5545131, 0.99177057},
    {1.16929, 2.1027586, 0.63930213, 3.2580004, 1.8506788, 5.1161065, 0.5942056, 0.38880065, -0.5987512, -0.10181624},
    {-1.4887977, -1.9419149, -0.42122504, 0.6282503, -0.63989395, 1.4728458, 1.2803785, 0.40082973, 1.3786839, -0.12847966},
    {3.0172672, 2.2885365, 2.5833144, -0.7542678, 2.5756953, -2.632918, -0.44631934, -0.42896068, -0.34609497, 1.2980677},
    {1.7927592, -0.05695163, 3.4550395, 0.11443589, -0.60532176, -0.24144828, -1.303996, 0.45407873, -1.4081951, 0.41577813},
    {-2.9762604, -1.9954052, -2.3186867, 0.5494357, -2.4261403, -0.51002824, 0.1536165, 0.3272228, 0.8303273, -0.37983736},
    {1.4792633, 0.5675667, -0.76487255, -0.5364462, -1.8384851, -0.06930877, -0.27142718, 0.6112373, -0.31933504, -0.82097715},
    {-1.1617677, 1.3241005, -1.4267961, -0.7794548, -1.61108, -2.2019784, 0.16971436, -0.93906057, 0.17918435, 0.9834213},
    {1.0692743, -0.7859234, 0.94225633, -0.47056106, 0.01699066, 1.3136522, -0.40467006, 0.5154797, -1.0610262, -0.7864251},
    {-1.4351515, -2.4512506, -1.4311596, -1.3793267, -0.0041100415, 1.1343312, 1.4631056, 0.3558964, -0.25057358, -0.44120964}
};

const lstm_config::weight_t weight_f::recurrent_kernel [lstm_config::n_in][lstm_config::n_in] hls_register = {
    {-0.50163746, 0.69659925, -0.7390585, 0.18177585, -0.348543, -0.19588606, 0.34324983, -0.6941881, 0.37544295, 1.1014293},
    {-0.35670477, -0.57647616, 0.68646836, -1.9093361, -1.7082773, 0.19540702, 1.0766122, 1.3088545, -0.5214343, -0.61181647},
    {0.40694404, 0.49304682, 0.99276763, -0.75061244, 0.02492876, 0.7296028, 1.1583897, -0.13592507, 0.18758756, 0.92317307},
    {-2.221185, 0.2675808, 1.090121, -0.30060822, -2.2458024, 0.50989294, -0.016675932, 1.0418533, -0.97851104, -0.7304859},
    {-0.039927643, 0.5635842, 0.16074061, 0.45569897, -1.5182035, 0.3231604, 1.168021, 0.69351727, -0.5802623, -1.3077216},
    {-0.72901875, -0.13728555, -1.2527381, -0.5900546, 1.0524118, 1.6722395, 0.5388513, -0.64629275, 0.34000933, 1.3558532},
    {0.22201234, -0.80843264, -0.4916058, -0.1222141, 0.9866393, -1.2611717, -0.29219005, 0.0527581, 1.2761006, -1.3094053},
    {0.2588222, 0.84425175, 0.10555848, -0.9466535, 0.10663977, 0.85213536, 0.22379692, 0.006713171, -0.03364852, 1.2673752},
    {0.21862279, -1.235753, 1.1986668, 0.31837216, -0.26052505, -2.6853056, -0.19045886, 0.36688536, 0.6323021, -2.0694048},
    {1.2858316, -0.42490113, -0.050434716, 0.58706206, 0.527267, -2.598695, 0.7080274, -0.8466645, 0.7668089, -0.14450929}
};

const lstm_config::weight_t weight_c::recurrent_kernel [lstm_config::n_in][lstm_config::n_in] hls_register = {
    {-1.408523, 0.79256827, 1.5028336, -1.1674945, -1.1646894, 0.6619596, 0.71262926, 0.25519472, -1.6195511, 0.64044464},
    {0.65858126, -1.1462973, -1.4499012, 0.21804853, 1.2927804, -0.96323067, 0.6071538, -0.9626823, 1.4676737, 0.36205047},
    {-0.120744705, 0.114533484, -0.8048439, 1.3945588, 0.5372468, 0.23596147, -1.1635258, -0.027692078, -0.21711518, -0.24778543},
    {0.037746433, 0.34209597, -0.5240636, -0.79055095, -0.99591064, -0.56613207, 0.9289859, -0.046253175, 0.6025477, 0.70473045},
    {1.2266835, 0.38178363, -0.8312447, 0.35388917, -0.9388052, -0.18397681, 1.1180185, -0.07040308, 0.39422494, 1.3731087},
    {-1.0830196, 0.053941898, 0.700108, 0.16033658, 0.10808691, -0.889386, -1.0592223, -0.1750447, -1.0212243, -1.1733606},
    {-0.009638242, -0.35705495, 1.1896104, -1.0405843, 0.34778276, 1.0563815, -0.4694875, -0.64411926, 0.1741136, 0.27297762},
    {-0.61807173, 1.26811, 0.0025853259, 0.56869376, 0.45366332, -0.93290854, -0.98044366, -0.38750207, 0.63511395, 0.18034405},
    {0.014632115, -0.6190225, -0.22557446, -0.869284, -0.5649774, 0.86454743, 0.8817651, -0.08810571, -0.5939752, 0.77004635},
    {-0.92667526, 0.25166628, -0.007187173, 0.6062237, 0.31232435, 0.026678413, 0.6795102, 0.19090335, 0.14992762, -1.0529106}
};

const lstm_config::weight_t weight_o::recurrent_kernel [lstm_config::n_in][lstm_config::n_in] hls_register = {
    {0.34160778, 1.6977156, -0.40317053, -1.2669295, 0.6688862, -2.7720737, -1.9831889, -1.1753147, 0.5292993, 2.272886},
    {2.327119, 1.8777416, 0.379364, 0.24784938, -0.18950129, 1.1984009, 1.839164, 0.66271836, -0.20149368, 0.8998831},
    {-1.0531704, -1.9254355, -2.1341329, 1.2784331, -1.971956, 0.7443113, 2.117672, -0.47755507, 0.4656179, -0.61965406},
    {2.8509126, 4.1433415, 2.4316952, 1.336783, 3.6377404, -1.1762233, -1.0987266, 0.18673939, -0.8113087, 0.42701945},
    {0.9391041, 0.19617173, 3.1392078, 0.34347868, -0.1460321, -0.37044477, -0.6377641, 0.30185705, -1.165177, -0.3426626},
    {-5.0292406, -3.5753984, -2.9213343, -0.9953442, -1.6400917, -0.8644288, 1.2887683, -0.15517035, 0.34956524, -0.5703931},
    {1.4453378, 0.028781965, -0.55859524, 0.058688328, -3.7845433, 0.4230005, -1.8627855, 0.9792149, 0.50339967, -1.2378823},
    {-0.0022968624, 1.6666236, -1.548616, -0.4136229, -0.95485383, -1.2478099, 0.17704229, -1.3519274, -0.719591, 0.8894545},
    {0.2955361, -1.1308829, 2.2011607, 0.14658459, -3.1127872, 1.4679421, -0.46683586, 0.28036767, -0.039411224, -1.1207206},
    {-0.7142091, -1.817606, -0.7924332, -0.75406003, -2.1360483, 2.2002478, 0.15952031, 0.01458268, -0.29028332, -0.33129418}
};


#endif
